net
{
	propagationenginegenerator1791944048146838126L = "edu.ucla.belief.approx.BeliefPropagationSettings@3949f0c9";
	recoveryenginegenerator6944530267470113528l = "edu.ucla.util.SettingsImpl@72301cfc";
	node_size = (130.0 55.0);
	huginenginegenerator3061656038650325130L = "edu.ucla.belief.inference.JoinTreeSettings@ed63f7e";
}

node Age
{
	states = ("Between16and21" "Between22and64" "Over65" );
	position = (872 -13);
	DSLxEXTRA_DEFINITIONxMANDATORY = "false";
	diagnosistype = "AUXILIARY";
	label = "Age";
	DSLxPOSITIONxWIDTH = "70";
	DSLxEXTRA_DEFINITIONxDIAGNOSIS_TYPE = "AUXILIARY";
	excludepolicy = "include whole CPT";
	DSLxTYPE = "CPT";
	DSLxPOSITIONxHEIGHT = "30";
	DSLxEXTRA_DEFINITIONxRANKED = "false";
	ismapvariable = "false";
	ID = "Age";
}
node Reliability
{
	states = ("Reliable" "Unreliable" );
	position = (693 -376);
	DSLxEXTRA_DEFINITIONxMANDATORY = "false";
	diagnosistype = "AUXILIARY";
	label = "Reliability";
	DSLxPOSITIONxWIDTH = "70";
	DSLxEXTRA_DEFINITIONxDIAGNOSIS_TYPE = "AUXILIARY";
	excludepolicy = "include whole CPT";
	DSLxTYPE = "CPT";
	DSLxPOSITIONxHEIGHT = "30";
	DSLxEXTRA_DEFINITIONxRANKED = "false";
	ismapvariable = "false";
	ID = "Reliability";
}
node PaymentHistory
{
	states = ("Excellent" "Acceptable" "Unacceptable" );
	position = (595 -188);
	DSLxEXTRA_DEFINITIONxMANDATORY = "false";
	diagnosistype = "AUXILIARY";
	label = "Payment History";
	DSLxPOSITIONxWIDTH = "93";
	DSLxEXTRA_DEFINITIONxDIAGNOSIS_TYPE = "AUXILIARY";
	excludepolicy = "include whole CPT";
	DSLxTYPE = "CPT";
	DSLxPOSITIONxHEIGHT = "30";
	DSLxEXTRA_DEFINITIONxRANKED = "false";
	ismapvariable = "false";
	ID = "PaymentHistory";
}
node FutureIncome
{
	states = ("Promising" "Not_promising" );
	position = (492 -328);
	DSLxEXTRA_DEFINITIONxMANDATORY = "false";
	diagnosistype = "AUXILIARY";
	label = "Future Income";
	DSLxPOSITIONxWIDTH = "90";
	DSLxEXTRA_DEFINITIONxDIAGNOSIS_TYPE = "AUXILIARY";
	excludepolicy = "include whole CPT";
	DSLxTYPE = "CPT";
	DSLxPOSITIONxHEIGHT = "30";
	DSLxEXTRA_DEFINITIONxRANKED = "false";
	ismapvariable = "false";
	ID = "FutureIncome";
}
node Income
{
	states = ("High" "Medium" "Low" );
	position = (373 10);
	DSLxEXTRA_DEFINITIONxMANDATORY = "false";
	diagnosistype = "AUXILIARY";
	label = "Income";
	DSLxPOSITIONxWIDTH = "83";
	DSLxEXTRA_DEFINITIONxDIAGNOSIS_TYPE = "AUXILIARY";
	excludepolicy = "include whole CPT";
	DSLxTYPE = "CPT";
	DSLxPOSITIONxHEIGHT = "30";
	DSLxEXTRA_DEFINITIONxRANKED = "false";
	ismapvariable = "false";
	ID = "Profession";
}
node DebtIncomeRatio
{
	states = ("Low" "High" );
	position = (592 5);
	DSLxEXTRA_DEFINITIONxMANDATORY = "false";
	diagnosistype = "AUXILIARY";
	label = "Ratio of Debts To Income";
	DSLxPOSITIONxWIDTH = "81";
	DSLxEXTRA_DEFINITIONxDIAGNOSIS_TYPE = "AUXILIARY";
	excludepolicy = "include whole CPT";
	DSLxTYPE = "CPT";
	DSLxPOSITIONxHEIGHT = "30";
	DSLxEXTRA_DEFINITIONxRANKED = "false";
	ismapvariable = "false";
	ID = "RatioDebInc";
}
node CreditWorthiness
{
	states = ("Positive" "Negative" );
	position = (593 -536);
	DSLxEXTRA_DEFINITIONxMANDATORY = "false";
	diagnosistype = "AUXILIARY";
	label = "Credit Worthiness";
	DSLxPOSITIONxWIDTH = "100";
	DSLxEXTRA_DEFINITIONxDIAGNOSIS_TYPE = "AUXILIARY";
	excludepolicy = "include whole CPT";
	DSLxTYPE = "CPT";
	DSLxPOSITIONxHEIGHT = "30";
	DSLxEXTRA_DEFINITIONxRANKED = "false";
	ismapvariable = "false";
	ID = "CreditWorthiness";
}
node Assets
{
	states = ("High" "Medium" "Low" );
	position = (322 -171);
	DSLxEXTRA_DEFINITIONxMANDATORY = "false";
	diagnosistype = "AUXILIARY";
	label = "Assets";
	DSLxPOSITIONxWIDTH = "70";
	DSLxEXTRA_DEFINITIONxDIAGNOSIS_TYPE = "AUXILIARY";
	excludepolicy = "include whole CPT";
	DSLxTYPE = "CPT";
	DSLxPOSITIONxHEIGHT = "30";
	DSLxEXTRA_DEFINITIONxRANKED = "false";
	ismapvariable = "false";
	ID = "Worth";
}
potential ( Age | )
{
	data = (	0.3333333333333333	0.3333333333333333	0.3333333333333333	);
}
potential ( Reliability | PaymentHistory Age )
{
	data = (((	0.5	0.5	)
		(	0.7	0.3	)
		(	0.95	0.05	))
		((	0.4	0.6	)
		(	0.6	0.4	)
		(	0.9090909090909092	0.09090909090909091	))
		((	0.01	0.99	)
		(	0.058823529411764705	0.9411764705882353	)
		(	0.1	0.9	)));
}
potential ( PaymentHistory | Age DebtIncomeRatio )
{
	data = (((	0.05	0.35	0.6	)
		(	0.001	0.199	0.8	))
		((	0.1	0.4	0.5	)
		(	0.019417475728155338	0.36893203883495146	0.6116504854368932	))
		((	0.59	0.4	0.01	)
		(	0.1	0.4	0.5	)));
}
potential ( FutureIncome | Assets Income )
{
	data = (((	0.9999	1.0E-4	)
		(	0.8	0.2	)
		(	0.6	0.4	))
		((	0.8	0.2	)
		(	0.6	0.4	)
		(	0.4	0.6	))
		((	0.6	0.4	)
		(	0.4	0.6	)
		(	0.001	0.999	)));
}
potential ( Income | )
{
	data = (	0.3333333333333333	0.3333333333333333	0.3333333333333333	);
}
potential ( DebtIncomeRatio | )
{
	data = (	0.5	0.5	);
}
potential ( CreditWorthiness | FutureIncome Reliability )
{
	data = (((	0.9	0.1	)
		(	0.2	0.8	))
		((	0.2	0.8	)
		(	0.1	0.9	)));
}
potential ( Assets | Income )
{
	data = ((	0.7	0.2	0.1	)
		(	0.05	0.8	0.15	)
		(	0.01	0.09	0.9	));
}
